-6.24313780800071,-12.5178847096692,-2.14131437792812,-14.8625612433862,-0.697053046124663,15.1876495502695,-0.319054173551023,0.744490938072641,-0.30970954971461,0.577234924257763,-0.12560735518703,-0.771454433703029,0.219173911084839,-0.201721138286696,0.397242888585972,-0.0682465213834439,0.334190284200401,0.0639670156842284,0.239913694577872,-0.0196640223315769,0.366043361102698,-0.0321564605595373,-0.4534851979496,-0.0173136254466319,-7.58214035474307,-15.3599875292867,-2.38753760434934,-17.1957115981586,-0.418835641480471,18.4129203831579,0.0759310698281368,0.0927237326073072,-0.207605782572878,-0.379591778269384,0.463050315190767,-0.431110083340323,0.0592971483266097,-0.178453481529744,-0.0849338157263355,-0.296766745432939,0.398607270642341,-0.303269009346878,-0.359457374841737,-0.123547715090066,0.154458606897555,0.496571817368548,0.0513340490968987,0.253249294431159,0.0595162459691616,0.0271407086151819,0.1982161359891,0.250806864129316,-0.362562390760416,0.118207183702307,0.335127127284963,0.233787021449689,0.402901281729451,0.286802801780957,0.232245528998649,0.35825248228644,-0.386246293243052,0.108775114262424,0.0286138388325419,0.126154577607403,-0.366159782239603,0.034319004640165,0.0680698480508513,0.0589098757424319,-0.0200132481261544,-0.0607727485299884,-0.134066568854771,-2.84036692147,-0.260066428730641,0.23183899331647,0.131071729397965,-3.05960978171416,-0.159494637856132,0.938793703306606,0.143433942498058,0.260691246050094,0.239375622267262,5.55038308302571,
